digraph Tree {
node [shape=box, style="filled", color="black", fontname="helvetica"] ;
edge [fontname="helvetica"] ;
0 [label="checkin_acc <= 1.5\nentropy = 0.881\nsamples = 1000\nvalue = [700, 300]\nclass = Bad Credit", fillcolor="#f0b78e"] ;
1 [label="duration <= 22.5\nentropy = 0.99\nsamples = 543\nvalue = [303, 240]\nclass = Bad Credit", fillcolor="#fae5d6"] ;
0 -> 1 [labeldistance=2.5, labelangle=45, headlabel="True"] ;
2 [label="credit_history <= 2.5\nentropy = 0.931\nsamples = 306\nvalue = [200, 106]\nclass = Bad Credit", fillcolor="#f3c4a2"] ;
1 -> 2 ;
3 [label="duration <= 11.5\nentropy = 0.888\nsamples = 278\nvalue = [193, 85]\nclass = Bad Credit", fillcolor="#f0b890"] ;
2 -> 3 ;
4 [label="entropy = 0.669\nsamples = 80\nvalue = [66, 14]\nclass = Bad Credit", fillcolor="#eb9c63"] ;
3 -> 4 ;
5 [label="entropy = 0.942\nsamples = 198\nvalue = [127, 71]\nclass = Bad Credit", fillcolor="#f4c7a8"] ;
3 -> 5 ;
6 [label="inst_plans <= 0.5\nentropy = 0.811\nsamples = 28\nvalue = [7, 21]\nclass = Good Credit", fillcolor="#7bbeee"] ;
2 -> 6 ;
7 [label="entropy = 0.353\nsamples = 15\nvalue = [1, 14]\nclass = Good Credit", fillcolor="#47a4e7"] ;
6 -> 7 ;
8 [label="entropy = 0.996\nsamples = 13\nvalue = [6, 7]\nclass = Good Credit", fillcolor="#e3f1fb"] ;
6 -> 8 ;
9 [label="savings_acc <= 0.5\nentropy = 0.988\nsamples = 237\nvalue = [103, 134]\nclass = Good Credit", fillcolor="#d1e8f9"] ;
1 -> 9 ;
10 [label="checkin_acc <= 0.5\nentropy = 0.888\nsamples = 36\nvalue = [25, 11]\nclass = Bad Credit", fillcolor="#f0b890"] ;
9 -> 10 ;
11 [label="entropy = 0.918\nsamples = 15\nvalue = [5, 10]\nclass = Good Credit", fillcolor="#9ccef2"] ;
10 -> 11 ;
12 [label="entropy = 0.276\nsamples = 21\nvalue = [20, 1]\nclass = Bad Credit", fillcolor="#e68743"] ;
10 -> 12 ;
13 [label="duration <= 47.5\nentropy = 0.964\nsamples = 201\nvalue = [78, 123]\nclass = Good Credit", fillcolor="#b7dbf5"] ;
9 -> 13 ;
14 [label="entropy = 0.991\nsamples = 164\nvalue = [73, 91]\nclass = Good Credit", fillcolor="#d8ecfa"] ;
13 -> 14 ;
15 [label="entropy = 0.571\nsamples = 37\nvalue = [5, 32]\nclass = Good Credit", fillcolor="#58ace9"] ;
13 -> 15 ;
16 [label="inst_plans <= 0.5\nentropy = 0.561\nsamples = 457\nvalue = [397, 60]\nclass = Bad Credit", fillcolor="#e99457"] ;
0 -> 16 [labeldistance=2.5, labelangle=-45, headlabel="False"] ;
17 [label="credit_history <= 0.5\nentropy = 0.468\nsamples = 381\nvalue = [343, 38]\nclass = Bad Credit", fillcolor="#e88f4f"] ;
16 -> 17 ;
18 [label="amount <= 11867.0\nentropy = 0.244\nsamples = 149\nvalue = [143, 6]\nclass = Bad Credit", fillcolor="#e68641"] ;
17 -> 18 ;
19 [label="entropy = 0.213\nsamples = 148\nvalue = [143, 5]\nclass = Bad Credit", fillcolor="#e68540"] ;
18 -> 19 ;
20 [label="entropy = 0.0\nsamples = 1\nvalue = [0, 1]\nclass = Good Credit", fillcolor="#399de5"] ;
18 -> 20 ;
21 [label="num_credits <= 1.5\nentropy = 0.579\nsamples = 232\nvalue = [200, 32]\nclass = Bad Credit", fillcolor="#e99559"] ;
17 -> 21 ;
22 [label="entropy = 0.494\nsamples = 185\nvalue = [165, 20]\nclass = Bad Credit", fillcolor="#e89051"] ;
21 -> 22 ;
23 [label="entropy = 0.82\nsamples = 47\nvalue = [35, 12]\nclass = Bad Credit", fillcolor="#eeac7d"] ;
21 -> 23 ;
24 [label="age <= 44.5\nentropy = 0.868\nsamples = 76\nvalue = [54, 22]\nclass = Bad Credit", fillcolor="#f0b48a"] ;
16 -> 24 ;
25 [label="residing_since <= 1.5\nentropy = 0.939\nsamples = 59\nvalue = [38, 21]\nclass = Bad Credit", fillcolor="#f3c7a6"] ;
24 -> 25 ;
26 [label="entropy = 0.0\nsamples = 8\nvalue = [8, 0]\nclass = Bad Credit", fillcolor="#e58139"] ;
25 -> 26 ;
27 [label="entropy = 0.977\nsamples = 51\nvalue = [30, 21]\nclass = Bad Credit", fillcolor="#f7d9c4"] ;
25 -> 27 ;
28 [label="residing_since <= 1.5\nentropy = 0.323\nsamples = 17\nvalue = [16, 1]\nclass = Bad Credit", fillcolor="#e78945"] ;
24 -> 28 ;
29 [label="entropy = 1.0\nsamples = 2\nvalue = [1, 1]\nclass = Bad Credit", fillcolor="#ffffff"] ;
28 -> 29 ;
30 [label="entropy = 0.0\nsamples = 15\nvalue = [15, 0]\nclass = Bad Credit", fillcolor="#e58139"] ;
28 -> 30 ;
}